Language model created by QuickLM on Wed Apr  5 16:03:47 EDT 2017
Copyright (c) 1996-2010 Carnegie Mellon University and Alexander I. Rudnicky

The model is in standard ARPA format, designed by Doug Paul while he was at MITRE.

The code that was used to produce this language model is available in Open Source.
Please visit http://www.speech.cs.cmu.edu/tools/ for more information

The (fixed) discount mass is 0.5. The backoffs are computed using the ratio method.
This model based on a corpus of 24 sentences and 39 words

\data\
ngram 1=39
ngram 2=65
ngram 3=55

\1-grams:
-0.9853 </s> -0.3010
-0.9853 <s> -0.2536
-1.8884 A -0.2954
-2.0645 ARE -0.2973
-2.3655 BATMAN -0.2536
-2.3655 BLACK -0.2536
-2.3655 BLUE -0.2536
-2.3655 COLOR -0.2536
-2.0645 FAVORITE -0.2973
-2.3655 GREEN -0.2536
-2.3655 HERO -0.2536
-2.3655 HI -0.2536
-2.3655 HOW -0.2973
-2.3655 IN -0.2992
-1.3241 IS -0.2760
-2.3655 IT -0.2536
-2.3655 JOKE -0.2536
-2.0645 ME -0.2954
-2.3655 MONTREAL -0.2536
-2.3655 NO -0.2536
-2.0645 POKEMON -0.2536
-2.3655 RED -0.2536
-2.3655 ROBOT -0.2536
-2.3655 SPIDERMAN -0.2536
-2.3655 STORY -0.2536
-2.3655 SUPER -0.2992
-2.3655 SUPERMAN -0.2536
-2.0645 TELL -0.2973
-2.0645 THE -0.2954
-2.0645 TIME -0.2300
-2.3655 TODAY -0.2536
-2.3655 WEATHER -0.2992
-1.5873 WHAT -0.2760
-2.3655 WHITE -0.2536
-1.5873 WHO -0.2760
-2.3655 YELLOW -0.2536
-2.3655 YES -0.2536
-2.0645 YOU -0.2515
-2.0645 YOUR -0.2973

\2-grams:
-1.6812 <s> BLACK 0.0000
-1.6812 <s> BLUE 0.0000
-1.6812 <s> GREEN 0.0000
-1.6812 <s> HI 0.0000
-1.6812 <s> HOW 0.0000
-1.6812 <s> NO 0.0000
-1.6812 <s> RED 0.0000
-1.3802 <s> TELL 0.0000
-0.9031 <s> WHAT 0.0000
-1.6812 <s> WHITE 0.0000
-0.9031 <s> WHO 0.0000
-1.6812 <s> YELLOW 0.0000
-1.6812 <s> YES 0.0000
-0.7782 A JOKE 0.0000
-0.7782 A ROBOT 0.0000
-0.7782 A STORY 0.0000
-0.3010 ARE YOU 0.0000
-0.3010 BATMAN </s> -0.3010
-0.3010 BLACK </s> -0.3010
-0.3010 BLUE </s> -0.3010
-0.3010 COLOR </s> -0.3010
-0.6021 FAVORITE COLOR 0.0000
-0.6021 FAVORITE SUPER 0.0000
-0.3010 GREEN </s> -0.3010
-0.3010 HERO </s> -0.3010
-0.3010 HI </s> -0.3010
-0.3010 HOW ARE 0.0000
-0.3010 IN MONTREAL 0.0000
-1.3424 IS A -0.2218
-1.3424 IS BATMAN 0.0000
-1.3424 IS IT 0.0000
-1.0414 IS POKEMON 0.0000
-1.3424 IS SPIDERMAN 0.0000
-1.3424 IS SUPERMAN 0.0000
-1.0414 IS THE 0.0000
-1.0414 IS YOUR 0.0000
-0.3010 IT </s> -0.3010
-0.3010 JOKE </s> -0.3010
-0.3010 ME A -0.1249
-0.3010 MONTREAL </s> -0.3010
-0.3010 NO </s> -0.3010
-0.3010 POKEMON </s> -0.3010
-0.3010 RED </s> -0.3010
-0.3010 ROBOT </s> -0.3010
-0.3010 SPIDERMAN </s> -0.3010
-0.3010 STORY </s> -0.3010
-0.3010 SUPER HERO 0.0000
-0.3010 SUPERMAN </s> -0.3010
-0.3010 TELL ME 0.0000
-0.6021 THE TIME -0.1761
-0.6021 THE WEATHER 0.0000
-0.6021 TIME </s> -0.3010
-0.6021 TIME IS -0.2808
-0.3010 TODAY </s> -0.3010
-0.3010 WEATHER IN 0.0000
-0.3802 WHAT IS -0.1347
-1.0792 WHAT TIME -0.1761
-0.3010 WHITE </s> -0.3010
-1.0792 WHO ARE 0.0000
-0.3802 WHO IS -0.1347
-0.3010 YELLOW </s> -0.3010
-0.3010 YES </s> -0.3010
-0.6021 YOU </s> -0.3010
-0.6021 YOU TODAY 0.0000
-0.3010 YOUR FAVORITE 0.0000

\3-grams:
-0.3010 <s> BLACK </s>
-0.3010 <s> BLUE </s>
-0.3010 <s> GREEN </s>
-0.3010 <s> HI </s>
-0.3010 <s> HOW ARE
-0.3010 <s> NO </s>
-0.3010 <s> RED </s>
-0.3010 <s> TELL ME
-0.3802 <s> WHAT IS
-1.0792 <s> WHAT TIME
-0.3010 <s> WHITE </s>
-1.0792 <s> WHO ARE
-0.3802 <s> WHO IS
-0.3010 <s> YELLOW </s>
-0.3010 <s> YES </s>
-0.3010 A JOKE </s>
-0.3010 A ROBOT </s>
-0.3010 A STORY </s>
-0.6021 ARE YOU </s>
-0.6021 ARE YOU TODAY
-0.3010 FAVORITE COLOR </s>
-0.3010 FAVORITE SUPER HERO
-0.3010 HOW ARE YOU
-0.3010 IN MONTREAL </s>
-0.3010 IS A ROBOT
-0.3010 IS BATMAN </s>
-0.3010 IS IT </s>
-0.3010 IS POKEMON </s>
-0.3010 IS SPIDERMAN </s>
-0.3010 IS SUPERMAN </s>
-0.6021 IS THE TIME
-0.6021 IS THE WEATHER
-0.3010 IS YOUR FAVORITE
-0.6021 ME A JOKE
-0.6021 ME A STORY
-0.3010 SUPER HERO </s>
-0.3010 TELL ME A
-0.3010 THE TIME </s>
-0.3010 THE WEATHER IN
-0.3010 TIME IS IT
-0.3010 WEATHER IN MONTREAL
-1.0000 WHAT IS A
-1.0000 WHAT IS POKEMON
-0.6990 WHAT IS THE
-1.0000 WHAT IS YOUR
-0.3010 WHAT TIME IS
-0.3010 WHO ARE YOU
-1.0000 WHO IS BATMAN
-1.0000 WHO IS POKEMON
-1.0000 WHO IS SPIDERMAN
-1.0000 WHO IS SUPERMAN
-1.0000 WHO IS YOUR
-0.3010 YOU TODAY </s>
-0.6021 YOUR FAVORITE COLOR
-0.6021 YOUR FAVORITE SUPER

\end\
